|--- 年龄 <= -0.93
|   |--- 理赔历史_否 <= 0.50
|   |   |--- 职业_设计师 <= 0.50
|   |   |   |--- class: 0
|   |   |--- 职业_设计师 >  0.50
|   |   |   |--- class: 1
|   |--- 理赔历史_否 >  0.50
|   |   |--- 保单期限_20年 <= 0.50
|   |   |   |--- class: 1
|   |   |--- 保单期限_20年 >  0.50
|   |   |   |--- class: 0
|--- 年龄 >  -0.93
|   |--- 年龄 <= 1.14
|   |   |--- 保单期限_20年 <= 0.50
|   |   |   |--- class: 1
|   |   |--- 保单期限_20年 >  0.50
|   |   |   |--- class: 1
|   |--- 年龄 >  1.14
|   |   |--- 理赔历史_否 <= 0.50
|   |   |   |--- class: 0
|   |   |--- 理赔历史_否 >  0.50
|   |   |   |--- class: 1
